<?xml version="1.0"?>
<opencv_storage>
<myfacedetector type_id="opencv-haar-classifier">
  <size>
    24 24</size>
  <stages>
    <_>
      <trees>
        <_>
          <_>
            <feature>
              <rects>
                <_>
                  1 6 20 8 -1.</_>
                <_>
                  1 10 20 4 2.</_></rects>
              <tilted>0</tilted></feature>
            <threshold>0.0686232075095177</threshold>
            <left_val>-0.9684209823608398</left_val>
            <right_val>0.8761907219886780</right_val></_></_>
        <_>
          <_>
            <feature>
              <rects>
                <_>
                  14 1 8 5 -1.</_>
                <_>
                  16 3 4 5 2.</_></rects>
              <tilted>1</tilted></feature>
            <threshold>-3.0468329787254333e-003</threshold>
            <left_val>0.2852854132652283</left_val>
            <right_val>-0.8581401109695435</right_val></_></_></trees>
      <stage_threshold>-0.6831356287002564</stage_threshold>
      <parent>-1</parent>
      <next>-1</next></_>
    <_>
      <trees>
        <_>
          <_>
            <feature>
              <rects>
                <_>
                  0 0 2 1 -1.</_>
                <_>
                  1 0 1 1 2.</_></rects>
              <tilted>0</tilted></feature>
            <threshold>-6.2126950069796294e-005</threshold>
            <left_val>1.</left_val>
            <right_val>-1.</right_val></_></_></trees>
      <stage_threshold>1.</stage_threshold>
      <parent>0</parent>
      <next>-1</next></_>
    <_>
      <trees>
        <_>
          <_>
            <feature>
              <rects>
                <_>
                  0 0 1 3 -1.</_>
                <_>
                  0 1 1 1 3.</_></rects>
              <tilted>0</tilted></feature>
            <threshold>-1.5457280096597970e-004</threshold>
            <left_val>-1.</left_val>
            <right_val>1.</right_val></_></_></trees>
      <stage_threshold>1.</stage_threshold>
      <parent>1</parent>
      <next>-1</next></_>
    <_>
      <trees>
        <_>
          <_>
            <feature>
              <rects>
                <_>
                  0 0 3 3 -1.</_>
                <_>
                  1 1 1 1 9.</_></rects>
              <tilted>0</tilted></feature>
            <threshold>-2.5665480643510818e-003</threshold>
            <left_val>1.</left_val>
            <right_val>-1.</right_val></_></_></trees>
      <stage_threshold>1.</stage_threshold>
      <parent>2</parent>
      <next>-1</next></_>
    <_>
      <trees>
        <_>
          <_>
            <feature>
              <rects>
                <_>
                  0 0 1 2 -1.</_>
                <_>
                  0 1 1 1 2.</_></rects>
              <tilted>0</tilted></feature>
            <threshold>-2.4368629965465516e-005</threshold>
            <left_val>1.</left_val>
            <right_val>-1.</right_val></_></_></trees>
      <stage_threshold>1.</stage_threshold>
      <parent>3</parent>
      <next>-1</next></_>
    <_>
      <trees>
        <_>
          <_>
            <feature>
              <rects>
                <_>
                  0 0 1 2 -1.</_>
                <_>
                  0 1 1 1 2.</_></rects>
              <tilted>0</tilted></feature>
            <threshold>-1.0998860234394670e-003</threshold>
            <left_val>-1.</left_val>
            <right_val>1.</right_val></_></_></trees>
      <stage_threshold>1.</stage_threshold>
      <parent>4</parent>
      <next>-1</next></_>
    <_>
      <trees>
        <_>
          <_>
            <feature>
              <rects>
                <_>
                  0 0 3 3 -1.</_>
                <_>
                  1 1 1 1 9.</_></rects>
              <tilted>0</tilted></feature>
            <threshold>-4.7500189393758774e-003</threshold>
            <left_val>1.</left_val>
            <right_val>-1.</right_val></_></_></trees>
      <stage_threshold>1.</stage_threshold>
      <parent>5</parent>
      <next>-1</next></_>
    <_>
      <trees>
        <_>
          <_>
            <feature>
              <rects>
                <_>
                  0 0 3 1 -1.</_>
                <_>
                  1 0 1 1 3.</_></rects>
              <tilted>0</tilted></feature>
            <threshold>-2.3094359785318375e-003</threshold>
            <left_val>-1.</left_val>
            <right_val>1.</right_val></_></_></trees>
      <stage_threshold>1.</stage_threshold>
      <parent>6</parent>
      <next>-1</next></_>
    <_>
      <trees>
        <_>
          <_>
            <feature>
              <rects>
                <_>
                  0 0 3 3 -1.</_>
                <_>
                  0 1 3 1 3.</_></rects>
              <tilted>0</tilted></feature>
            <threshold>-1.7780619673430920e-003</threshold>
            <left_val>1.</left_val>
            <right_val>-1.</right_val></_></_></trees>
      <stage_threshold>1.</stage_threshold>
      <parent>7</parent>
      <next>-1</next></_>
    <_>
      <trees>
        <_>
          <_>
            <feature>
              <rects>
                <_>
                  0 0 3 3 -1.</_>
                <_>
                  1 1 1 1 9.</_></rects>
              <tilted>0</tilted></feature>
            <threshold>-7.8337388113141060e-003</threshold>
            <left_val>-1.</left_val>
            <right_val>1.</right_val></_></_></trees>
      <stage_threshold>1.</stage_threshold>
      <parent>8</parent>
      <next>-1</next></_>
    <_>
      <trees>
        <_>
          <_>
            <feature>
              <rects>
                <_>
                  0 0 1 4 -1.</_>
                <_>
                  0 1 1 2 2.</_></rects>
              <tilted>0</tilted></feature>
            <threshold>-9.5575052546337247e-004</threshold>
            <left_val>-1.</left_val>
            <right_val>1.</right_val></_></_></trees>
      <stage_threshold>1.</stage_threshold>
      <parent>9</parent>
      <next>-1</next></_>
    <_>
      <trees>
        <_>
          <_>
            <feature>
              <rects>
                <_>
                  0 0 3 3 -1.</_>
                <_>
                  1 1 1 1 9.</_></rects>
              <tilted>0</tilted></feature>
            <threshold>-5.5793011561036110e-003</threshold>
            <left_val>1.</left_val>
            <right_val>-1.</right_val></_></_></trees>
      <stage_threshold>1.</stage_threshold>
      <parent>10</parent>
      <next>-1</next></_>
    <_>
      <trees>
        <_>
          <_>
            <feature>
              <rects>
                <_>
                  0 0 1 3 -1.</_>
                <_>
                  0 1 1 1 3.</_></rects>
              <tilted>0</tilted></feature>
            <threshold>1.4132939395494759e-004</threshold>
            <left_val>-1.</left_val>
            <right_val>1.</right_val></_></_></trees>
      <stage_threshold>1.</stage_threshold>
      <parent>11</parent>
      <next>-1</next></_>
    <_>
      <trees>
        <_>
          <_>
            <feature>
              <rects>
                <_>
                  0 0 3 6 -1.</_>
                <_>
                  1 2 1 2 9.</_></rects>
              <tilted>0</tilted></feature>
            <threshold>-3.7380980793386698e-003</threshold>
            <left_val>1.</left_val>
            <right_val>-1.</right_val></_></_></trees>
      <stage_threshold>1.</stage_threshold>
      <parent>12</parent>
      <next>-1</next></_>
    <_>
      <trees>
        <_>
          <_>
            <feature>
              <rects>
                <_>
                  0 0 2 3 -1.</_>
                <_>
                  0 1 2 1 3.</_></rects>
              <tilted>0</tilted></feature>
            <threshold>-1.2376139638945460e-003</threshold>
            <left_val>-1.</left_val>
            <right_val>1.</right_val></_></_></trees>
      <stage_threshold>1.</stage_threshold>
      <parent>13</parent>
      <next>-1</next></_></stages></myfacedetector>
</opencv_storage>
