<?xml version="1.0"?>
<opencv_storage>
<cascade>
  <stageType>BOOST</stageType>
  <featureType>HAAR</featureType>
  <height>20</height>
  <width>20</width>
  <stageParams>
    <boostType>GAB</boostType>
    <minHitRate>9.9500000476837158e-01</minHitRate>
    <maxFalseAlarm>5.0000000000000000e-01</maxFalseAlarm>
    <weightTrimRate>9.4999999999999996e-01</weightTrimRate>
    <maxDepth>1</maxDepth>
    <maxWeakCount>100</maxWeakCount></stageParams>
  <featureParams>
    <maxCatCount>0</maxCatCount>
    <featSize>1</featSize>
    <mode>BASIC</mode></featureParams>
  <stageNum>4</stageNum>
  <stages>
    <!-- stage 0 -->
    <_>
      <maxWeakCount>2</maxWeakCount>
      <stageThreshold>-1.9654165208339691e-01</stageThreshold>
      <weakClassifiers>
        <_>
          <internalNodes>
            0 -1 6 -5.4271414875984192e-02</internalNodes>
          <leafValues>
            7.9498863220214844e-01 -9.5024877786636353e-01</leafValues></_>
        <_>
          <internalNodes>
            0 -1 13 8.4874406456947327e-02</internalNodes>
          <leafValues>
            -8.1218147277832031e-01 7.5370711088180542e-01</leafValues></_></weakClassifiers></_>
    <!-- stage 1 -->
    <_>
      <maxWeakCount>3</maxWeakCount>
      <stageThreshold>-1.1860197782516479e+00</stageThreshold>
      <weakClassifiers>
        <_>
          <internalNodes>
            0 -1 1 1.5796555206179619e-02</internalNodes>
          <leafValues>
            -7.8236395120620728e-01 7.0624232292175293e-01</leafValues></_>
        <_>
          <internalNodes>
            0 -1 11 6.0007385909557343e-02</internalNodes>
          <leafValues>
            -8.6549204587936401e-01 6.2224441766738892e-01</leafValues></_>
        <_>
          <internalNodes>
            0 -1 3 -2.0702347159385681e-02</internalNodes>
          <leafValues>
            4.6183621883392334e-01 -8.5915535688400269e-01</leafValues></_></weakClassifiers></_>
    <!-- stage 2 -->
    <_>
      <maxWeakCount>5</maxWeakCount>
      <stageThreshold>-1.0730779170989990e+00</stageThreshold>
      <weakClassifiers>
        <_>
          <internalNodes>
            0 -1 0 7.5536682270467281e-03</internalNodes>
          <leafValues>
            -7.8400832414627075e-01 5.4130434989929199e-01</leafValues></_>
        <_>
          <internalNodes>
            0 -1 8 6.0867212712764740e-02</internalNodes>
          <leafValues>
            -8.1627929210662842e-01 4.9983918666839600e-01</leafValues></_>
        <_>
          <internalNodes>
            0 -1 9 7.5075081549584866e-03</internalNodes>
          <leafValues>
            -6.3681191205978394e-01 5.7812052965164185e-01</leafValues></_>
        <_>
          <internalNodes>
            0 -1 5 -3.3411838114261627e-02</internalNodes>
          <leafValues>
            5.8289748430252075e-01 -5.8940911293029785e-01</leafValues></_>
        <_>
          <internalNodes>
            0 -1 12 4.5314364135265350e-02</internalNodes>
          <leafValues>
            -6.3380837440490723e-01 4.6740645170211792e-01</leafValues></_></weakClassifiers></_>
    <!-- stage 3 -->
    <_>
      <maxWeakCount>5</maxWeakCount>
      <stageThreshold>-1.5319919586181641e+00</stageThreshold>
      <weakClassifiers>
        <_>
          <internalNodes>
            0 -1 1 1.6362164169549942e-02</internalNodes>
          <leafValues>
            -7.2717273235321045e-01 4.1478440165519714e-01</leafValues></_>
        <_>
          <internalNodes>
            0 -1 7 -1.3628626242280006e-02</internalNodes>
          <leafValues>
            3.2942411303520203e-01 -8.8354492187500000e-01</leafValues></_>
        <_>
          <internalNodes>
            0 -1 2 1.4737650752067566e-01</internalNodes>
          <leafValues>
            -7.9109549522399902e-01 4.0502020716667175e-01</leafValues></_>
        <_>
          <internalNodes>
            0 -1 10 3.1424466520547867e-02</internalNodes>
          <leafValues>
            -8.3195537328720093e-01 3.4603312611579895e-01</leafValues></_>
        <_>
          <internalNodes>
            0 -1 4 -2.2263731807470322e-03</internalNodes>
          <leafValues>
            4.0122351050376892e-01 -6.8918097019195557e-01</leafValues></_></weakClassifiers></_></stages>
  <features>
    <_>
      <rects>
        <_>
          1 8 4 2 -1.</_>
        <_>
          3 8 2 2 2.</_></rects>
      <tilted>0</tilted></_>
    <_>
      <rects>
        <_>
          2 7 6 2 -1.</_>
        <_>
          4 7 2 2 3.</_></rects>
      <tilted>0</tilted></_>
    <_>
      <rects>
        <_>
          3 0 16 18 -1.</_>
        <_>
          3 6 16 6 3.</_></rects>
      <tilted>0</tilted></_>
    <_>
      <rects>
        <_>
          3 2 8 8 -1.</_>
        <_>
          3 2 4 4 2.</_>
        <_>
          7 6 4 4 2.</_></rects>
      <tilted>0</tilted></_>
    <_>
      <rects>
        <_>
          3 9 1 4 -1.</_>
        <_>
          3 11 1 2 2.</_></rects>
      <tilted>0</tilted></_>
    <_>
      <rects>
        <_>
          4 6 2 12 -1.</_>
        <_>
          4 12 2 6 2.</_></rects>
      <tilted>0</tilted></_>
    <_>
      <rects>
        <_>
          4 7 12 3 -1.</_>
        <_>
          8 7 4 3 3.</_></rects>
      <tilted>0</tilted></_>
    <_>
      <rects>
        <_>
          7 2 7 8 -1.</_>
        <_>
          7 6 7 4 2.</_></rects>
      <tilted>0</tilted></_>
    <_>
      <rects>
        <_>
          8 8 10 3 -1.</_>
        <_>
          13 8 5 3 2.</_></rects>
      <tilted>0</tilted></_>
    <_>
      <rects>
        <_>
          11 0 4 4 -1.</_>
        <_>
          11 2 4 2 2.</_></rects>
      <tilted>0</tilted></_>
    <_>
      <rects>
        <_>
          11 6 9 3 -1.</_>
        <_>
          14 6 3 3 3.</_></rects>
      <tilted>0</tilted></_>
    <_>
      <rects>
        <_>
          11 6 9 5 -1.</_>
        <_>
          14 6 3 5 3.</_></rects>
      <tilted>0</tilted></_>
    <_>
      <rects>
        <_>
          11 7 9 3 -1.</_>
        <_>
          14 7 3 3 3.</_></rects>
      <tilted>0</tilted></_>
    <_>
      <rects>
        <_>
          15 0 3 18 -1.</_>
        <_>
          15 6 3 6 3.</_></rects>
      <tilted>0</tilted></_></features></cascade>
</opencv_storage>
