<?xml version="1.0"?>
<opencv_storage>
<cascade>
  <stageType>BOOST</stageType>
  <featureType>HAAR</featureType>
  <height>20</height>
  <width>20</width>
  <stageParams>
    <boostType>GAB</boostType>
    <minHitRate>9.9500000476837158e-01</minHitRate>
    <maxFalseAlarm>5.0000000000000000e-01</maxFalseAlarm>
    <weightTrimRate>9.4999999999999996e-01</weightTrimRate>
    <maxDepth>1</maxDepth>
    <maxWeakCount>100</maxWeakCount></stageParams>
  <featureParams>
    <maxCatCount>0</maxCatCount>
    <featSize>1</featSize>
    <mode>BASIC</mode></featureParams>
  <stageNum>8</stageNum>
  <stages>
    <!-- stage 0 -->
    <_>
      <maxWeakCount>2</maxWeakCount>
      <stageThreshold>-1.9654165208339691e-01</stageThreshold>
      <weakClassifiers>
        <_>
          <internalNodes>
            0 -1 13 -5.4271414875984192e-02</internalNodes>
          <leafValues>
            7.9498863220214844e-01 -9.5024877786636353e-01</leafValues></_>
        <_>
          <internalNodes>
            0 -1 26 8.4874406456947327e-02</internalNodes>
          <leafValues>
            -8.1218147277832031e-01 7.5370711088180542e-01</leafValues></_></weakClassifiers></_>
    <!-- stage 1 -->
    <_>
      <maxWeakCount>3</maxWeakCount>
      <stageThreshold>-1.1860197782516479e+00</stageThreshold>
      <weakClassifiers>
        <_>
          <internalNodes>
            0 -1 2 1.5796555206179619e-02</internalNodes>
          <leafValues>
            -7.8236395120620728e-01 7.0624232292175293e-01</leafValues></_>
        <_>
          <internalNodes>
            0 -1 21 6.0007385909557343e-02</internalNodes>
          <leafValues>
            -8.6549204587936401e-01 6.2224441766738892e-01</leafValues></_>
        <_>
          <internalNodes>
            0 -1 4 -2.0702347159385681e-02</internalNodes>
          <leafValues>
            4.6183621883392334e-01 -8.5915535688400269e-01</leafValues></_></weakClassifiers></_>
    <!-- stage 2 -->
    <_>
      <maxWeakCount>5</maxWeakCount>
      <stageThreshold>-1.0730779170989990e+00</stageThreshold>
      <weakClassifiers>
        <_>
          <internalNodes>
            0 -1 1 7.5536682270467281e-03</internalNodes>
          <leafValues>
            -7.8400832414627075e-01 5.4130434989929199e-01</leafValues></_>
        <_>
          <internalNodes>
            0 -1 17 6.0867212712764740e-02</internalNodes>
          <leafValues>
            -8.1627929210662842e-01 4.9983918666839600e-01</leafValues></_>
        <_>
          <internalNodes>
            0 -1 19 7.5075081549584866e-03</internalNodes>
          <leafValues>
            -6.3681191205978394e-01 5.7812052965164185e-01</leafValues></_>
        <_>
          <internalNodes>
            0 -1 12 -3.3411838114261627e-02</internalNodes>
          <leafValues>
            5.8289748430252075e-01 -5.8940911293029785e-01</leafValues></_>
        <_>
          <internalNodes>
            0 -1 22 4.5314364135265350e-02</internalNodes>
          <leafValues>
            -6.3380837440490723e-01 4.6740645170211792e-01</leafValues></_></weakClassifiers></_>
    <!-- stage 3 -->
    <_>
      <maxWeakCount>5</maxWeakCount>
      <stageThreshold>-1.5319919586181641e+00</stageThreshold>
      <weakClassifiers>
        <_>
          <internalNodes>
            0 -1 2 1.6362164169549942e-02</internalNodes>
          <leafValues>
            -7.2717273235321045e-01 4.1478440165519714e-01</leafValues></_>
        <_>
          <internalNodes>
            0 -1 15 -1.3628626242280006e-02</internalNodes>
          <leafValues>
            3.2942411303520203e-01 -8.8354492187500000e-01</leafValues></_>
        <_>
          <internalNodes>
            0 -1 3 1.4737650752067566e-01</internalNodes>
          <leafValues>
            -7.9109549522399902e-01 4.0502020716667175e-01</leafValues></_>
        <_>
          <internalNodes>
            0 -1 20 3.1424466520547867e-02</internalNodes>
          <leafValues>
            -8.3195537328720093e-01 3.4603312611579895e-01</leafValues></_>
        <_>
          <internalNodes>
            0 -1 7 -2.2263731807470322e-03</internalNodes>
          <leafValues>
            4.0122351050376892e-01 -6.8918097019195557e-01</leafValues></_></weakClassifiers></_>
    <!-- stage 4 -->
    <_>
      <maxWeakCount>4</maxWeakCount>
      <stageThreshold>-8.3307158946990967e-01</stageThreshold>
      <weakClassifiers>
        <_>
          <internalNodes>
            0 -1 8 4.2987823486328125e-02</internalNodes>
          <leafValues>
            -7.7076023817062378e-01 3.9105057716369629e-01</leafValues></_>
        <_>
          <internalNodes>
            0 -1 23 4.1903229430317879e-03</internalNodes>
          <leafValues>
            -6.4916270971298218e-01 3.9556068181991577e-01</leafValues></_>
        <_>
          <internalNodes>
            0 -1 25 1.2252298183739185e-02</internalNodes>
          <leafValues>
            -6.9849544763565063e-01 3.7709438800811768e-01</leafValues></_>
        <_>
          <internalNodes>
            0 -1 24 1.0944012552499771e-02</internalNodes>
          <leafValues>
            -9.5205384492874146e-01 2.8236913681030273e-01</leafValues></_></weakClassifiers></_>
    <!-- stage 5 -->
    <_>
      <maxWeakCount>5</maxWeakCount>
      <stageThreshold>-6.6821110248565674e-01</stageThreshold>
      <weakClassifiers>
        <_>
          <internalNodes>
            0 -1 0 5.5478282272815704e-02</internalNodes>
          <leafValues>
            -8.3286118507385254e-01 2.8122344613075256e-01</leafValues></_>
        <_>
          <internalNodes>
            0 -1 18 1.4081857167184353e-02</internalNodes>
          <leafValues>
            -5.7127428054809570e-01 4.3157735466957092e-01</leafValues></_>
        <_>
          <internalNodes>
            0 -1 30 -1.5353500202763826e-04</internalNodes>
          <leafValues>
            -8.6435377597808838e-01 2.7573758363723755e-01</leafValues></_>
        <_>
          <internalNodes>
            0 -1 30 6.5624204580672085e-05</internalNodes>
          <leafValues>
            4.3203881382942200e-01 -7.1980035305023193e-01</leafValues></_>
        <_>
          <internalNodes>
            0 -1 16 6.3302159309387207e-02</internalNodes>
          <leafValues>
            -9.3925493955612183e-01 1.7713548243045807e-01</leafValues></_></weakClassifiers></_>
    <!-- stage 6 -->
    <_>
      <maxWeakCount>6</maxWeakCount>
      <stageThreshold>-1.1186503171920776e+00</stageThreshold>
      <weakClassifiers>
        <_>
          <internalNodes>
            0 -1 32 -1.2767842039465904e-02</internalNodes>
          <leafValues>
            5.8227849006652832e-01 -4.9960032105445862e-01</leafValues></_>
        <_>
          <internalNodes>
            0 -1 9 -5.9995339252054691e-03</internalNodes>
          <leafValues>
            3.3954373002052307e-01 -7.9008799791336060e-01</leafValues></_>
        <_>
          <internalNodes>
            0 -1 29 -3.9622024632990360e-04</internalNodes>
          <leafValues>
            -8.3749496936798096e-01 2.2235333919525146e-01</leafValues></_>
        <_>
          <internalNodes>
            0 -1 27 1.6482279170304537e-04</internalNodes>
          <leafValues>
            2.7623611688613892e-01 -8.3595865964889526e-01</leafValues></_>
        <_>
          <internalNodes>
            0 -1 31 4.4121048413217068e-03</internalNodes>
          <leafValues>
            -4.7567081451416016e-01 4.1896826028823853e-01</leafValues></_>
        <_>
          <internalNodes>
            0 -1 5 1.8950644880533218e-03</internalNodes>
          <leafValues>
            -6.5996450185775757e-01 3.1332862377166748e-01</leafValues></_></weakClassifiers></_>
    <!-- stage 7 -->
    <_>
      <maxWeakCount>6</maxWeakCount>
      <stageThreshold>-1.2265673875808716e+00</stageThreshold>
      <weakClassifiers>
        <_>
          <internalNodes>
            0 -1 28 -3.5128800664097071e-04</internalNodes>
          <leafValues>
            -7.9867988824844360e-01 1.7776037752628326e-01</leafValues></_>
        <_>
          <internalNodes>
            0 -1 11 2.3568280448671430e-04</internalNodes>
          <leafValues>
            -9.0875977277755737e-01 1.8849958479404449e-01</leafValues></_>
        <_>
          <internalNodes>
            0 -1 21 8.4439493715763092e-02</internalNodes>
          <leafValues>
            -5.4764986038208008e-01 4.0253856778144836e-01</leafValues></_>
        <_>
          <internalNodes>
            0 -1 6 -4.8307692632079124e-03</internalNodes>
          <leafValues>
            3.3439093828201294e-01 -6.7185395956039429e-01</leafValues></_>
        <_>
          <internalNodes>
            0 -1 10 3.8869623094797134e-03</internalNodes>
          <leafValues>
            3.0468192696571350e-01 -7.8587502241134644e-01</leafValues></_>
        <_>
          <internalNodes>
            0 -1 14 1.9701919518411160e-03</internalNodes>
          <leafValues>
            -5.8699101209640503e-01 3.5123747587203979e-01</leafValues></_></weakClassifiers></_></stages>
  <features>
    <_>
      <rects>
        <_>
          1 4 9 7 -1.</_>
        <_>
          4 4 3 7 3.</_></rects>
      <tilted>0</tilted></_>
    <_>
      <rects>
        <_>
          1 8 4 2 -1.</_>
        <_>
          3 8 2 2 2.</_></rects>
      <tilted>0</tilted></_>
    <_>
      <rects>
        <_>
          2 7 6 2 -1.</_>
        <_>
          4 7 2 2 3.</_></rects>
      <tilted>0</tilted></_>
    <_>
      <rects>
        <_>
          3 0 16 18 -1.</_>
        <_>
          3 6 16 6 3.</_></rects>
      <tilted>0</tilted></_>
    <_>
      <rects>
        <_>
          3 2 8 8 -1.</_>
        <_>
          3 2 4 4 2.</_>
        <_>
          7 6 4 4 2.</_></rects>
      <tilted>0</tilted></_>
    <_>
      <rects>
        <_>
          3 3 2 6 -1.</_>
        <_>
          4 3 1 6 2.</_></rects>
      <tilted>0</tilted></_>
    <_>
      <rects>
        <_>
          3 8 1 6 -1.</_>
        <_>
          3 11 1 3 2.</_></rects>
      <tilted>0</tilted></_>
    <_>
      <rects>
        <_>
          3 9 1 4 -1.</_>
        <_>
          3 11 1 2 2.</_></rects>
      <tilted>0</tilted></_>
    <_>
      <rects>
        <_>
          4 1 2 15 -1.</_>
        <_>
          4 6 2 5 3.</_></rects>
      <tilted>0</tilted></_>
    <_>
      <rects>
        <_>
          4 3 4 6 -1.</_>
        <_>
          4 3 2 3 2.</_>
        <_>
          6 6 2 3 2.</_></rects>
      <tilted>0</tilted></_>
    <_>
      <rects>
        <_>
          4 3 11 8 -1.</_>
        <_>
          4 7 11 4 2.</_></rects>
      <tilted>0</tilted></_>
    <_>
      <rects>
        <_>
          4 5 1 4 -1.</_>
        <_>
          4 7 1 2 2.</_></rects>
      <tilted>0</tilted></_>
    <_>
      <rects>
        <_>
          4 6 2 12 -1.</_>
        <_>
          4 12 2 6 2.</_></rects>
      <tilted>0</tilted></_>
    <_>
      <rects>
        <_>
          4 7 12 3 -1.</_>
        <_>
          8 7 4 3 3.</_></rects>
      <tilted>0</tilted></_>
    <_>
      <rects>
        <_>
          5 2 1 4 -1.</_>
        <_>
          5 4 1 2 2.</_></rects>
      <tilted>0</tilted></_>
    <_>
      <rects>
        <_>
          7 2 7 8 -1.</_>
        <_>
          7 6 7 4 2.</_></rects>
      <tilted>0</tilted></_>
    <_>
      <rects>
        <_>
          8 4 8 10 -1.</_>
        <_>
          12 4 4 10 2.</_></rects>
      <tilted>0</tilted></_>
    <_>
      <rects>
        <_>
          8 8 10 3 -1.</_>
        <_>
          13 8 5 3 2.</_></rects>
      <tilted>0</tilted></_>
    <_>
      <rects>
        <_>
          10 0 4 6 -1.</_>
        <_>
          10 2 4 2 3.</_></rects>
      <tilted>0</tilted></_>
    <_>
      <rects>
        <_>
          11 0 4 4 -1.</_>
        <_>
          11 2 4 2 2.</_></rects>
      <tilted>0</tilted></_>
    <_>
      <rects>
        <_>
          11 6 9 3 -1.</_>
        <_>
          14 6 3 3 3.</_></rects>
      <tilted>0</tilted></_>
    <_>
      <rects>
        <_>
          11 6 9 5 -1.</_>
        <_>
          14 6 3 5 3.</_></rects>
      <tilted>0</tilted></_>
    <_>
      <rects>
        <_>
          11 7 9 3 -1.</_>
        <_>
          14 7 3 3 3.</_></rects>
      <tilted>0</tilted></_>
    <_>
      <rects>
        <_>
          12 9 2 3 -1.</_>
        <_>
          13 9 1 3 2.</_></rects>
      <tilted>0</tilted></_>
    <_>
      <rects>
        <_>
          13 5 5 9 -1.</_>
        <_>
          13 8 5 3 3.</_></rects>
      <tilted>0</tilted></_>
    <_>
      <rects>
        <_>
          14 0 2 12 -1.</_>
        <_>
          14 4 2 4 3.</_></rects>
      <tilted>0</tilted></_>
    <_>
      <rects>
        <_>
          15 0 3 18 -1.</_>
        <_>
          15 6 3 6 3.</_></rects>
      <tilted>0</tilted></_>
    <_>
      <rects>
        <_>
          15 7 2 2 -1.</_>
        <_>
          16 7 1 2 2.</_></rects>
      <tilted>0</tilted></_>
    <_>
      <rects>
        <_>
          15 7 2 3 -1.</_>
        <_>
          16 7 1 3 2.</_></rects>
      <tilted>0</tilted></_>
    <_>
      <rects>
        <_>
          15 8 2 2 -1.</_>
        <_>
          16 8 1 2 2.</_></rects>
      <tilted>0</tilted></_>
    <_>
      <rects>
        <_>
          15 9 2 1 -1.</_>
        <_>
          16 9 1 1 2.</_></rects>
      <tilted>0</tilted></_>
    <_>
      <rects>
        <_>
          17 9 2 6 -1.</_>
        <_>
          17 9 1 3 2.</_>
        <_>
          18 12 1 3 2.</_></rects>
      <tilted>0</tilted></_>
    <_>
      <rects>
        <_>
          18 6 2 7 -1.</_>
        <_>
          19 6 1 7 2.</_></rects>
      <tilted>0</tilted></_></features></cascade>
</opencv_storage>
